digraph Tree {
node [shape=box, style="filled", color="black", fontname="helvetica"] ;
edge [fontname="helvetica"] ;
0 [label="age <= 21.0\nsquared_error = 283.726\nsamples = 618\nvalue = 35.465", fillcolor="#f4cbad"] ;
1 [label="cement <= 354.5\nsquared_error = 150.637\nsamples = 194\nvalue = 23.027", fillcolor="#f9e3d2"] ;
0 -> 1 [labeldistance=2.5, labelangle=45, headlabel="True"] ;
2 [label="superplasticizer <= 8.8\nsquared_error = 73.672\nsamples = 140\nvalue = 18.313", fillcolor="#fbece0"] ;
1 -> 2 ;
3 [label="age <= 10.5\nsquared_error = 39.712\nsamples = 110\nvalue = 15.593", fillcolor="#fcf1e9"] ;
2 -> 3 ;
4 [label="cement <= 189.1\nsquared_error = 27.682\nsamples = 93\nvalue = 14.095", fillcolor="#fdf4ed"] ;
3 -> 4 ;
5 [label="coarse_aggregate <= 990.7\nsquared_error = 20.476\nsamples = 26\nvalue = 9.993", fillcolor="#fefbf9"] ;
4 -> 5 ;
6 [label="squared_error = 13.572\nsamples = 14\nvalue = 8.088", fillcolor="#ffffff"] ;
5 -> 6 ;
7 [label="squared_error = 19.352\nsamples = 12\nvalue = 12.217", fillcolor="#fdf7f3"] ;
5 -> 7 ;
8 [label="fine_aggregate <= 734.15\nsquared_error = 21.418\nsamples = 67\nvalue = 15.686", fillcolor="#fcf1e8"] ;
4 -> 8 ;
9 [label="squared_error = 22.562\nsamples = 14\nvalue = 20.451", fillcolor="#fae7da"] ;
8 -> 9 ;
10 [label="cement <= 282.5\nsquared_error = 13.534\nsamples = 53\nvalue = 14.428", fillcolor="#fdf3ec"] ;
8 -> 10 ;
11 [label="superplasticizer <= 5.65\nsquared_error = 10.249\nsamples = 36\nvalue = 13.302", fillcolor="#fdf5ef"] ;
10 -> 11 ;
12 [label="age <= 5.0\nsquared_error = 8.611\nsamples = 26\nvalue = 12.484", fillcolor="#fdf7f2"] ;
11 -> 12 ;
13 [label="squared_error = 4.98\nsamples = 9\nvalue = 10.429", fillcolor="#fefbf8"] ;
12 -> 13 ;
14 [label="squared_error = 7.113\nsamples = 17\nvalue = 13.572", fillcolor="#fdf5ef"] ;
12 -> 14 ;
15 [label="squared_error = 8.245\nsamples = 10\nvalue = 15.429", fillcolor="#fcf1e9"] ;
11 -> 15 ;
16 [label="squared_error = 12.129\nsamples = 17\nvalue = 16.811", fillcolor="#fceee5"] ;
10 -> 16 ;
17 [label="squared_error = 26.03\nsamples = 17\nvalue = 23.791", fillcolor="#f9e1d0"] ;
3 -> 17 ;
18 [label="age <= 5.0\nsquared_error = 71.579\nsamples = 30\nvalue = 28.288", fillcolor="#f7d8c2"] ;
2 -> 18 ;
19 [label="squared_error = 19.096\nsamples = 14\nvalue = 22.596", fillcolor="#f9e3d4"] ;
18 -> 19 ;
20 [label="squared_error = 64.349\nsamples = 16\nvalue = 33.268", fillcolor="#f5cfb4"] ;
18 -> 20 ;
21 [label="water <= 183.05\nsquared_error = 143.242\nsamples = 54\nvalue = 35.247", fillcolor="#f4cbae"] ;
1 -> 21 ;
22 [label="age <= 5.0\nsquared_error = 94.474\nsamples = 34\nvalue = 40.485", fillcolor="#f2c19e"] ;
21 -> 22 ;
23 [label="squared_error = 28.295\nsamples = 16\nvalue = 34.294", fillcolor="#f5cdb1"] ;
22 -> 23 ;
24 [label="squared_error = 88.94\nsamples = 18\nvalue = 45.988", fillcolor="#f0b78d"] ;
22 -> 24 ;
25 [label="fine_aggregate <= 723.25\nsquared_error = 100.224\nsamples = 20\nvalue = 26.343", fillcolor="#f8dcc8"] ;
21 -> 25 ;
26 [label="squared_error = 85.563\nsamples = 9\nvalue = 32.801", fillcolor="#f5d0b5"] ;
25 -> 26 ;
27 [label="squared_error = 50.175\nsamples = 11\nvalue = 21.059", fillcolor="#fae6d8"] ;
25 -> 27 ;
28 [label="water <= 175.55\nsquared_error = 241.446\nsamples = 424\nvalue = 41.156", fillcolor="#f2c09c"] ;
0 -> 28 [labeldistance=2.5, labelangle=-45, headlabel="False"] ;
29 [label="cement <= 239.3\nsquared_error = 237.274\nsamples = 150\nvalue = 52.192", fillcolor="#eeab7b"] ;
28 -> 29 ;
30 [label="age <= 42.0\nsquared_error = 132.988\nsamples = 54\nvalue = 38.94", fillcolor="#f3c4a3"] ;
29 -> 30 ;
31 [label="cement <= 159.5\nsquared_error = 98.085\nsamples = 27\nvalue = 31.375", fillcolor="#f6d3b9"] ;
30 -> 31 ;
32 [label="squared_error = 121.161\nsamples = 10\nvalue = 25.166", fillcolor="#f8decc"] ;
31 -> 32 ;
33 [label="squared_error = 48.496\nsamples = 17\nvalue = 35.027", fillcolor="#f4ccae"] ;
31 -> 33 ;
34 [label="fine_aggregate <= 794.2\nsquared_error = 53.415\nsamples = 27\nvalue = 46.506", fillcolor="#f0b68c"] ;
30 -> 34 ;
35 [label="squared_error = 18.422\nsamples = 14\nvalue = 52.226", fillcolor="#eeab7b"] ;
34 -> 35 ;
36 [label="squared_error = 17.925\nsamples = 13\nvalue = 40.346", fillcolor="#f2c29e"] ;
34 -> 36 ;
37 [label="fly_ash <= 41.75\nsquared_error = 141.589\nsamples = 96\nvalue = 59.646", fillcolor="#eb9d65"] ;
29 -> 37 ;
38 [label="superplasticizer <= 10.65\nsquared_error = 118.635\nsamples = 52\nvalue = 64.775", fillcolor="#e99355"] ;
37 -> 38 ;
39 [label="fine_aggregate <= 792.1\nsquared_error = 131.944\nsamples = 25\nvalue = 59.598", fillcolor="#eb9d65"] ;
38 -> 39 ;
40 [label="squared_error = 62.444\nsamples = 16\nvalue = 64.271", fillcolor="#e99457"] ;
39 -> 40 ;
41 [label="squared_error = 147.698\nsamples = 9\nvalue = 51.292", fillcolor="#eead7e"] ;
39 -> 41 ;
42 [label="coarse_aggregate <= 940.35\nsquared_error = 58.525\nsamples = 27\nvalue = 69.568", fillcolor="#e78a47"] ;
38 -> 42 ;
43 [label="squared_error = 18.4\nsamples = 12\nvalue = 63.791", fillcolor="#e99558"] ;
42 -> 43 ;
44 [label="squared_error = 42.562\nsamples = 15\nvalue = 74.19", fillcolor="#e58139"] ;
42 -> 44 ;
45 [label="fly_ash <= 118.75\nsquared_error = 100.893\nsamples = 44\nvalue = 53.585", fillcolor="#eda877"] ;
37 -> 45 ;
46 [label="fly_ash <= 95.3\nsquared_error = 66.451\nsamples = 31\nvalue = 49.65", fillcolor="#efb083"] ;
45 -> 46 ;
47 [label="squared_error = 45.725\nsamples = 11\nvalue = 53.952", fillcolor="#eda876"] ;
46 -> 47 ;
48 [label="superplasticizer <= 12.35\nsquared_error = 62.072\nsamples = 20\nvalue = 47.284", fillcolor="#f0b48a"] ;
46 -> 48 ;
49 [label="squared_error = 33.843\nsamples = 11\nvalue = 49.207", fillcolor="#efb184"] ;
48 -> 49 ;
50 [label="squared_error = 86.523\nsamples = 9\nvalue = 44.932", fillcolor="#f1b991"] ;
48 -> 50 ;
51 [label="squared_error = 58.017\nsamples = 13\nvalue = 62.97", fillcolor="#e9965b"] ;
45 -> 51 ;
52 [label="cement <= 303.8\nsquared_error = 140.554\nsamples = 274\nvalue = 35.115", fillcolor="#f4cbae"] ;
28 -> 52 ;
53 [label="age <= 42.0\nsquared_error = 102.956\nsamples = 171\nvalue = 30.761", fillcolor="#f6d4bb"] ;
52 -> 53 ;
54 [label="blast_furnace_slag <= 88.85\nsquared_error = 77.448\nsamples = 122\nvalue = 27.51", fillcolor="#f7dac5"] ;
53 -> 54 ;
55 [label="cement <= 211.2\nsquared_error = 53.618\nsamples = 41\nvalue = 21.525", fillcolor="#fae5d7"] ;
54 -> 55 ;
56 [label="squared_error = 12.31\nsamples = 14\nvalue = 14.165", fillcolor="#fdf3ed"] ;
55 -> 56 ;
57 [label="superplasticizer <= 5.05\nsquared_error = 32.39\nsamples = 27\nvalue = 25.341", fillcolor="#f8decb"] ;
55 -> 57 ;
58 [label="squared_error = 7.838\nsamples = 18\nvalue = 22.17", fillcolor="#f9e4d5"] ;
57 -> 58 ;
59 [label="squared_error = 21.173\nsamples = 9\nvalue = 31.682", fillcolor="#f6d2b8"] ;
57 -> 59 ;
60 [label="cement <= 188.1\nsquared_error = 62.202\nsamples = 81\nvalue = 30.539", fillcolor="#f6d4bc"] ;
54 -> 60 ;
61 [label="blast_furnace_slag <= 185.3\nsquared_error = 39.02\nsamples = 52\nvalue = 27.182", fillcolor="#f7dbc6"] ;
60 -> 61 ;
62 [label="fly_ash <= 97.35\nsquared_error = 32.575\nsamples = 30\nvalue = 24.646", fillcolor="#f8dfcd"] ;
61 -> 62 ;
63 [label="squared_error = 8.516\nsamples = 13\nvalue = 21.218", fillcolor="#fae6d8"] ;
62 -> 63 ;
64 [label="squared_error = 35.115\nsamples = 17\nvalue = 27.267", fillcolor="#f7dac6"] ;
62 -> 64 ;
65 [label="superplasticizer <= 8.5\nsquared_error = 27.081\nsamples = 22\nvalue = 30.64", fillcolor="#f6d4bb"] ;
61 -> 65 ;
66 [label="squared_error = 20.579\nsamples = 13\nvalue = 27.812", fillcolor="#f7d9c4"] ;
65 -> 66 ;
67 [label="squared_error = 8.235\nsamples = 9\nvalue = 34.724", fillcolor="#f5ccaf"] ;
65 -> 67 ;
68 [label="cement <= 263.45\nsquared_error = 47.313\nsamples = 29\nvalue = 36.559", fillcolor="#f4c9aa"] ;
60 -> 68 ;
69 [label="squared_error = 34.628\nsamples = 18\nvalue = 33.816", fillcolor="#f5ceb2"] ;
68 -> 69 ;
70 [label="squared_error = 35.606\nsamples = 11\nvalue = 41.048", fillcolor="#f2c09c"] ;
68 -> 70 ;
71 [label="fine_aggregate <= 848.0\nsquared_error = 74.614\nsamples = 49\nvalue = 38.856", fillcolor="#f3c4a3"] ;
53 -> 71 ;
72 [label="blast_furnace_slag <= 49.05\nsquared_error = 44.142\nsamples = 34\nvalue = 42.658", fillcolor="#f1bd97"] ;
71 -> 72 ;
73 [label="squared_error = 28.219\nsamples = 11\nvalue = 36.875", fillcolor="#f4c8a9"] ;
72 -> 73 ;
74 [label="fine_aggregate <= 747.65\nsquared_error = 28.115\nsamples = 23\nvalue = 45.424", fillcolor="#f0b88f"] ;
72 -> 74 ;
75 [label="squared_error = 22.775\nsamples = 10\nvalue = 47.911", fillcolor="#efb388"] ;
74 -> 75 ;
76 [label="squared_error = 23.804\nsamples = 13\nvalue = 43.511", fillcolor="#f1bb95"] ;
74 -> 76 ;
77 [label="squared_error = 36.644\nsamples = 15\nvalue = 30.238", fillcolor="#f6d5bd"] ;
71 -> 77 ;
78 [label="blast_furnace_slag <= 11.0\nsquared_error = 119.265\nsamples = 103\nvalue = 42.342", fillcolor="#f2be98"] ;
52 -> 78 ;
79 [label="fine_aggregate <= 679.35\nsquared_error = 60.833\nsamples = 66\nvalue = 37.859", fillcolor="#f3c6a6"] ;
78 -> 79 ;
80 [label="squared_error = 31.654\nsamples = 11\nvalue = 49.325", fillcolor="#efb083"] ;
79 -> 80 ;
81 [label="coarse_aggregate <= 949.5\nsquared_error = 35.116\nsamples = 55\nvalue = 35.566", fillcolor="#f4cbad"] ;
79 -> 81 ;
82 [label="squared_error = 50.218\nsamples = 15\nvalue = 38.575", fillcolor="#f3c5a4"] ;
81 -> 82 ;
83 [label="coarse_aggregate <= 976.0\nsquared_error = 24.784\nsamples = 40\nvalue = 34.438", fillcolor="#f5cdb0"] ;
81 -> 83 ;
84 [label="squared_error = 10.921\nsamples = 13\nvalue = 31.29", fillcolor="#f6d3ba"] ;
83 -> 84 ;
85 [label="coarse_aggregate <= 1040.3\nsquared_error = 24.391\nsamples = 27\nvalue = 35.953", fillcolor="#f4caac"] ;
83 -> 85 ;
86 [label="squared_error = 18.038\nsamples = 18\nvalue = 37.773", fillcolor="#f3c6a6"] ;
85 -> 86 ;
87 [label="squared_error = 17.222\nsamples = 9\nvalue = 32.313", fillcolor="#f5d1b6"] ;
85 -> 87 ;
88 [label="superplasticizer <= 8.05\nsquared_error = 123.701\nsamples = 37\nvalue = 50.339", fillcolor="#eeae80"] ;
78 -> 88 ;
89 [label="fine_aggregate <= 622.1\nsquared_error = 66.288\nsamples = 28\nvalue = 46.021", fillcolor="#f0b78d"] ;
88 -> 89 ;
90 [label="squared_error = 7.885\nsamples = 11\nvalue = 40.678", fillcolor="#f2c19d"] ;
89 -> 90 ;
91 [label="squared_error = 73.66\nsamples = 17\nvalue = 49.478", fillcolor="#efb083"] ;
89 -> 91 ;
92 [label="squared_error = 63.822\nsamples = 9\nvalue = 63.773", fillcolor="#e99558"] ;
88 -> 92 ;
}